svm_type c_svc
kernel_type rbf
gamma 64
nr_class 2
total_sv 158
rho -0.00997865
label 1 -1
nr_sv 80 78
SV
1.019158252374976 1:1 2:0 
1.239914613292063 1:0.906112 2:0.406602 
1.111255391661466 1:0.807485 2:0.584507 
1.080493495006748 1:0.679909 2:0.736572 
1.028756156637533 1:0.528858 2:0.857455 
1.120788024201129 1:0.360603 2:0.943128 
1.094513236947746 1:-3.07692e-06 2:1 
0.9599594046542517 1:-0.178211 2:0.970568 
0.9869394035361523 1:-0.345891 2:0.90463 
1.001401437352849 1:-0.496812 2:0.805483 
1.025859326008319 1:-0.625522 2:0.67764 
1.044165983369762 1:-0.727538 2:0.52663 
1.059143167363161 1:-0.799514 2:0.35876 
1.066844792953708 1:-0.839328 2:0.180858 
1.34326473911699 1:-0.846154 2:-6.66667e-06 
1.302402636084275 1:-0.820463 2:-0.176808 
1.219306357745559 1:-0.763975 2:-0.342827 
1.199623911399416 1:-0.679563 2:-0.491918 
1.126695343542401 1:-0.57112 2:-0.618723 
1.070945043163883 1:-0.443382 2:-0.71888 
1.036119621952592 1:-0.301723 2:-0.78915 
0.9860649542669334 1:-0.151937 2:-0.82754 
0.9777143548806114 1:9.23077e-06 2:-0.833333 
1.01654497146447 1:0.148202 2:-0.807103 
0.8030832020212195 1:0.287022 2:-0.750648 
1.042925697074174 1:0.411343 2:-0.666902 
1.049630768621706 1:0.516738 2:-0.559785 
1.1122112567518 1:0.599623 2:-0.43403 
0.8540567932970586 1:0.65738 2:-0.294975 
1.215176378473674 1:0.688438 2:-0.14834 
0.8395294173254131 1:0.692308 2:1.16667e-05 
0.8471756457355093 1:0.669572 2:0.144297 
1.133257503421236 1:0.621838 2:0.27905 
0.9981370854732887 1:0.551642 2:0.399325 
0.9579331195254928 1:0.462331 2:0.500875 
0.8957114234536501 1:0.357906 2:0.580303 
0.8667935175046378 1:0.242846 2:0.635172 
0.7879997136954597 1:0.12192 2:0.664075 
0.8331955503704191 1:-1.07692e-05 2:0.666667 
0.7951869200740681 1:-0.118191 2:0.643638 
0.8511591003815087 1:-0.228149 2:0.596667 
0.8106169295577468 1:-0.325872 2:0.528323 
0.9276580844890268 1:-0.407954 2:0.441933 
0.8467798963832479 1:-0.471706 2:0.341433 
0.8692685318682406 1:-0.515245 2:0.231193 
1.059753690433002 1:-0.537548 2:0.115822 
0.6316330508580033 1:-0.538462 2:-1.33333e-05 
1.367591873010912 1:-0.518682 2:-0.111783 
1.249419655937983 1:-0.423723 2:-0.306732 
0.5789328720863078 1:-0.353545 2:-0.383025 
0.5757684459100364 1:-0.272434 2:-0.441725 
1.062394000974371 1:-0.183971 2:-0.481192 
0.7692329295011208 1:1.23077e-05 2:-0.5 
1.044365808198533 1:0.0881769 2:-0.480173 
1.420855310820424 1:0.299169 2:-0.324082 
0.09303106041111914 1:0.343788 2:-0.248838 
1.030008958009238 1:0.373109 2:-0.167412 
0.4630742357295389 1:0.386658 2:-0.0833083 
0.7931175480481014 1:0.384615 2:1.16667e-05 
0.5511543408771216 1:0.367792 2:0.0792667 
0.6673597273501444 1:0.337568 2:0.15149 
0.5087496940853855 1:0.295805 2:0.214137 
0.5207826258379251 1:0.24476 2:0.265173 
0.4964739001010316 1:0.186962 2:0.303147 
0.379590386896161 1:0.125098 2:0.327212 
0.5246581664085548 1:0.0618938 2:0.337147 
0.2161750128692664 1:-1.07692e-05 2:0.333333 
0.6918126667945941 1:-0.0581615 2:0.31671 
0.07769983027164246 1:-0.110398 2:0.288708 
0.7330710567241088 1:-0.154926 2:0.251167 
0.3251965749488535 1:-0.190382 2:0.206232 
0.1121670578029543 1:-0.215868 2:0.156247 
0.8671115377831009 1:-0.230974 2:0.103635 
0.8081483262738922 1:-0.230769 2:-1e-05 
0.8967465798173706 1:-0.195432 2:-0.0877067 
0.1686984747161025 1:-0.167889 2:-0.121538 
0.8115721983736184 1:-0.101492 2:-0.164567 
0.3447689802635865 1:6.15385e-06 2:-0.166667 
0.5591221708928592 1:0.0281431 2:-0.153247 
1.898633719962714 1:0.0848769 2:-0.018285 
-1.280676222354437 1:-1 2:0 
-1.197735574369984 1:-0.971354 2:-0.209317 
-1.165216379411357 1:-0.906112 2:-0.406602 
-1.135511913942343 1:-0.807485 2:-0.584507 
-1.092887895039846 1:-0.679909 2:-0.736572 
-1.055079582433705 1:-0.528858 2:-0.857455 
-1.024126899314611 1:-0.360603 2:-0.943128 
-1.000109545032782 1:-0.181957 2:-0.991002 
-0.972832447653024 1:3.07692e-06 2:-1 
-1.117378373831242 1:0.178211 2:-0.970568 
-1.137922944399313 1:0.496812 2:-0.805483 
-1.009030313401259 1:0.625522 2:-0.67764 
-1.189902302731719 1:0.727538 2:-0.52663 
-1.366242283587664 1:0.839328 2:-0.180858 
-1.437336895571482 1:0.763975 2:0.342827 
-1.172503196558722 1:0.679563 2:0.491918 
-1.145166682167851 1:0.57112 2:0.618723 
-1.077741726031472 1:0.443382 2:0.71888 
-1.069340859380082 1:0.301723 2:0.78915 
-0.8248726219010927 1:0.151937 2:0.82754 
-1.031851892461605 1:-9.23077e-06 2:0.833333 
-0.9825419905898012 1:-0.148202 2:0.807103 
-1.014147628009603 1:-0.287022 2:0.750648 
-1.027688232811387 1:-0.411343 2:0.666902 
-1.072528321491489 1:-0.516738 2:0.559785 
-1.086811548723624 1:-0.599623 2:0.43403 
-1.103581393469427 1:-0.65738 2:0.294975 
-1.143452922064992 1:-0.688438 2:0.14834 
-1.128742073416346 1:-0.692308 2:-1.16667e-05 
-1.200601788904887 1:-0.669572 2:-0.144297 
-0.9365794036057038 1:-0.621838 2:-0.27905 
-1.083430260879176 1:-0.551642 2:-0.399325 
-0.9463750687517734 1:-0.462331 2:-0.500875 
-0.8915832534602108 1:-0.357906 2:-0.580303 
-0.917773481363782 1:-0.242846 2:-0.635172 
-0.7569532700966622 1:-0.12192 2:-0.664075 
-0.8161380637580623 1:1.07692e-05 2:-0.666667 
-0.8963742693809007 1:0.118191 2:-0.643638 
-0.7348129974101555 1:0.228149 2:-0.596667 
-0.7213412266992576 1:0.325872 2:-0.528323 
-0.9538488595496788 1:0.407954 2:-0.441933 
-0.8880817524485433 1:0.471706 2:-0.341433 
-0.8633145883105015 1:0.515245 2:-0.231193 
-0.9679814455305112 1:0.537548 2:-0.115822 
-0.8389000715433134 1:0.538462 2:1.33333e-05 
-0.843548947650921 1:0.518682 2:0.111783 
-0.8646933775155836 1:0.479702 2:0.215272 
-0.783799323804562 1:0.423723 2:0.306732 
-0.745042931746979 1:0.353545 2:0.383025 
-0.6872565069839994 1:0.272434 2:0.441725 
-0.6744423382412711 1:0.183971 2:0.481192 
-0.5928415401671605 1:0.0919062 2:0.500612 
-0.6837663139476866 1:-1.23077e-05 2:0.5 
-0.5052143626792902 1:-0.0881769 2:0.480173 
-0.8314735585625677 1:-0.169275 2:0.442687 
-0.2957018494623708 1:-0.2404 2:0.389745 
-1.204181251671652 1:-0.299169 2:0.324082 
-0.9616509230161332 1:-0.373109 2:0.167412 
-0.9097243031925045 1:-0.386658 2:0.0833083 
-1.33878085146059 1:-0.367792 2:-0.0792667 
-1.006259524733027 1:-0.295805 2:-0.214137 
-0.2536248675952366 1:-0.24476 2:-0.265173 
-0.5307694345729386 1:-0.186962 2:-0.303147 
-0.660652517410646 1:-0.125098 2:-0.327212 
-0.7538955064602648 1:1.07692e-05 2:-0.333333 
-0.4692496987643405 1:0.0581615 2:-0.31671 
-0.598325104200495 1:0.154926 2:-0.251167 
-0.6000154523292593 1:0.190382 2:-0.206232 
-0.839104409391212 1:0.230974 2:-0.103635 
-0.2266740833907707 1:0.235768 2:-0.050795 
-0.4548921471671524 1:0.230769 2:1e-05 
-0.7440296893193398 1:0.216903 2:0.0467483 
-0.6399037074591222 1:0.167889 2:0.121538 
-0.6155048937009868 1:0.101492 2:0.164567 
-0.1535216119323139 1:0.0318831 2:0.173682 
-0.7938457874285033 1:-0.0281431 2:0.153247 
-0.07807799698091464 1:-0.05152 2:0.13473 
-1.936718346670075 1:-0.0769231 2:-3.33333e-06 
